net
{
	propagationenginegenerator1791944048146838126L = "edu.ucla.belief.approx.BeliefPropagationSettings@25e62ea5";
	recoveryenginegenerator6944530267470113528l = "edu.ucla.util.SettingsImpl@6a60f14d";
	node_size = (130.0 55.0);
	huginenginegenerator3061656038650325130L = "edu.ucla.belief.inference.JoinTreeSettings@66867263";
}

node Assets
{
	states = ("High" "Medium" "Low" );
	position = (135 -101);
	DSLxEXTRA_DEFINITIONxMANDATORY = "false";
	diagnosistype = "AUXILIARY";
	label = "Assets";
	DSLxPOSITIONxWIDTH = "70";
	DSLxEXTRA_DEFINITIONxDIAGNOSIS_TYPE = "AUXILIARY";
	excludepolicy = "include whole CPT";
	DSLxTYPE = "CPT";
	DSLxPOSITIONxHEIGHT = "30";
	DSLxEXTRA_DEFINITIONxRANKED = "false";
	ismapvariable = "false";
	ID = "Worth";
}
node Reliability
{
	states = ("Reliable" "Unreliable" );
	position = (526 -293);
	DSLxEXTRA_DEFINITIONxMANDATORY = "false";
	diagnosistype = "AUXILIARY";
	label = "Reliability";
	DSLxPOSITIONxWIDTH = "70";
	DSLxEXTRA_DEFINITIONxDIAGNOSIS_TYPE = "AUXILIARY";
	excludepolicy = "include whole CPT";
	DSLxTYPE = "CPT";
	DSLxPOSITIONxHEIGHT = "30";
	DSLxEXTRA_DEFINITIONxRANKED = "false";
	ismapvariable = "false";
	ID = "Reliability";
}
node DebtIncomeRatio
{
	states = ("Low" "High" );
	position = (317 -96);
	DSLxEXTRA_DEFINITIONxMANDATORY = "false";
	diagnosistype = "AUXILIARY";
	label = "Ratio of Debts To Income";
	DSLxPOSITIONxWIDTH = "81";
	DSLxEXTRA_DEFINITIONxDIAGNOSIS_TYPE = "AUXILIARY";
	excludepolicy = "include whole CPT";
	DSLxTYPE = "CPT";
	DSLxPOSITIONxHEIGHT = "30";
	DSLxEXTRA_DEFINITIONxRANKED = "false";
	ismapvariable = "false";
	ID = "RatioDebInc";
}
node Income
{
	states = ("High" "Medium" "Low" );
	position = (-35 -106);
	DSLxEXTRA_DEFINITIONxMANDATORY = "false";
	diagnosistype = "AUXILIARY";
	label = "Income";
	DSLxPOSITIONxWIDTH = "83";
	DSLxEXTRA_DEFINITIONxDIAGNOSIS_TYPE = "AUXILIARY";
	excludepolicy = "include whole CPT";
	DSLxTYPE = "CPT";
	DSLxPOSITIONxHEIGHT = "30";
	DSLxEXTRA_DEFINITIONxRANKED = "false";
	ismapvariable = "false";
	ID = "Profession";
}
node PaymentHistory
{
	states = ("Excellent" "Acceptable" "Unacceptable" );
	position = (456 -164);
	DSLxEXTRA_DEFINITIONxMANDATORY = "false";
	diagnosistype = "AUXILIARY";
	label = "Payment History";
	DSLxPOSITIONxWIDTH = "93";
	DSLxEXTRA_DEFINITIONxDIAGNOSIS_TYPE = "AUXILIARY";
	excludepolicy = "include whole CPT";
	DSLxTYPE = "CPT";
	DSLxPOSITIONxHEIGHT = "30";
	DSLxEXTRA_DEFINITIONxRANKED = "false";
	ismapvariable = "false";
	ID = "PaymentHistory";
}
node CreditWorthiness
{
	states = ("Positive" "Negative" );
	position = (158 -390);
	DSLxEXTRA_DEFINITIONxMANDATORY = "false";
	diagnosistype = "AUXILIARY";
	label = "Credit Worthiness";
	DSLxPOSITIONxWIDTH = "100";
	DSLxEXTRA_DEFINITIONxDIAGNOSIS_TYPE = "AUXILIARY";
	excludepolicy = "include whole CPT";
	DSLxTYPE = "CPT";
	DSLxPOSITIONxHEIGHT = "30";
	DSLxEXTRA_DEFINITIONxRANKED = "false";
	ismapvariable = "false";
	ID = "CreditWorthiness";
}
node FutureIncome
{
	states = ("Promising" "Not_promising" );
	position = (75 -232);
	DSLxEXTRA_DEFINITIONxMANDATORY = "false";
	diagnosistype = "AUXILIARY";
	label = "Future Income";
	DSLxPOSITIONxWIDTH = "90";
	DSLxEXTRA_DEFINITIONxDIAGNOSIS_TYPE = "AUXILIARY";
	excludepolicy = "include whole CPT";
	DSLxTYPE = "CPT";
	DSLxPOSITIONxHEIGHT = "30";
	DSLxEXTRA_DEFINITIONxRANKED = "false";
	ismapvariable = "false";
	ID = "FutureIncome";
}
node Age
{
	states = ("Between16and21" "Between22and64" "Over65" );
	position = (622 -169);
	DSLxEXTRA_DEFINITIONxMANDATORY = "false";
	diagnosistype = "AUXILIARY";
	label = "Age";
	DSLxPOSITIONxWIDTH = "70";
	DSLxEXTRA_DEFINITIONxDIAGNOSIS_TYPE = "AUXILIARY";
	excludepolicy = "include whole CPT";
	DSLxTYPE = "CPT";
	DSLxPOSITIONxHEIGHT = "30";
	DSLxEXTRA_DEFINITIONxRANKED = "false";
	ismapvariable = "false";
	ID = "Age";
}
potential ( Assets | Income )
{
	data = ((	0.7000000000000001	0.20000000000000004	0.10000000000000002	)
		(	0.5	0.3	0.2	)
		(	0.1	0.2	0.7	));
}
potential ( Reliability | PaymentHistory Age )
{
	data = (((	0.4	0.6	)
		(	0.7	0.3	)
		(	0.9	0.1	))
		((	0.2	0.8	)
		(	0.5	0.5	)
		(	0.7	0.3	))
		((	0.1	0.9	)
		(	0.3	0.7	)
		(	0.5	0.5	)));
}
potential ( DebtIncomeRatio | )
{
	data = (	0.5	0.5	);
}
potential ( Income | )
{
	data = (	0.3333333333333333	0.3333333333333333	0.3333333333333333	);
}
potential ( PaymentHistory | Age DebtIncomeRatio )
{
	data = (((	0.1	0.2	0.7	)
		(	0.05	0.1	0.85	))
		((	0.5	0.3	0.2	)
		(	0.2	0.3	0.5	))
		((	0.85	0.1	0.05	)
		(	0.7000000000000001	0.20000000000000004	0.10000000000000002	)));
}
potential ( CreditWorthiness | Reliability FutureIncome DebtIncomeRatio )
{
	data = ((((	0.9	0.1	)
		(	0.6	0.4	))
		((	0.7	0.3	)
		(	0.4	0.6	)))
		(((	0.6	0.4	)
		(	0.3	0.7	))
		((	0.4	0.6	)
		(	0.1	0.9	))));
}
potential ( FutureIncome | Income Assets )
{
	data = (((	0.9	0.1	)
		(	0.8	0.2	)
		(	0.7	0.3	))
		((	0.7	0.3	)
		(	0.6	0.4	)
		(	0.5	0.5	))
		((	0.5	0.5	)
		(	0.4	0.6	)
		(	0.3	0.7	)));
}
potential ( Age | )
{
	data = (	0.3333333333333333	0.3333333333333333	0.3333333333333333	);
}
